~o
<STREAMINFO> 1 39
<VECSIZE> 39<NULLD><MELSPEC_D_A_0><DIAGC>
~h "background"
<BEGINHMM>
<NUMSTATES> 6
<STATE> 2
<MEAN> 39
 6.726296e+03 2.145179e+04 3.460096e+04 4.459386e+04 6.880214e+04 1.131885e+05 1.904598e+05 3.068897e+05 2.727032e+05 1.457441e+04 3.434292e+03 1.962886e+04 4.478703e+05 -2.555301e+01 6.985510e+01 -1.831996e+02 3.691576e+01 2.161517e+02 -3.179146e+01 1.339712e+03 1.909549e+03 3.861775e+02 -4.444116e+01 1.049348e+01 -6.124638e+01 1.478928e+03 -5.095090e+01 -1.188128e+02 -3.325971e+02 6.220678e+01 4.414030e+01 -7.099134e+02 -1.246284e+03 -1.516767e+03 -1.122683e+03 -3.373418e+01 -7.510330e+00 -8.227588e+00 -2.058033e+03
<VARIANCE> 39
 1.074059e+07 1.274178e+08 3.003580e+08 2.645848e+08 4.174736e+08 1.648058e+09 8.894774e+09 4.842245e+10 3.843093e+10 1.088643e+08 6.284627e+05 9.421724e+05 4.856414e+10 1.796316e+06 1.309641e+07 4.143947e+07 4.171714e+07 7.468162e+07 2.861062e+08 8.613361e+08 5.662154e+09 4.868371e+09 1.388318e+07 5.784495e+04 1.139181e+05 6.328830e+09 4.739956e+05 3.100866e+06 1.009693e+07 8.082972e+06 1.550408e+07 7.335383e+07 1.834364e+08 1.295000e+09 1.061259e+09 3.038202e+06 1.156096e+04 2.268309e+04 1.443543e+09
<GCONST> 7.699659e+02
<STATE> 3
<MEAN> 39
 9.620306e+02 1.861875e+03 5.588890e+03 4.990654e+03 5.645864e+03 5.923713e+03 5.736065e+03 5.610724e+03 4.868939e+03 1.533697e+03 2.890505e+03 1.954990e+04 2.660263e+04 -1.485475e+01 -4.681569e+01 -1.591306e+02 -1.246995e+02 -1.843710e+02 -2.125954e+02 -1.921295e+02 -1.620668e+02 -7.538490e+01 -2.463542e+00 6.571870e-01 7.255775e+00 -4.762619e+02 6.237327e+00 1.868768e+00 3.535797e+00 1.012256e+01 1.008980e+01 2.018416e+01 1.477689e+01 1.292246e+01 9.059168e+00 2.904997e-01 2.430349e-01 -7.916459e-01 3.614582e+01
<VARIANCE> 39
 4.933502e+05 4.284291e+06 4.454167e+07 3.293342e+07 5.109810e+07 5.739916e+07 4.582192e+07 2.874104e+07 1.311420e+07 2.930005e+04 2.758464e+04 9.875776e+05 3.113488e+08 2.144329e+04 3.235696e+04 3.392728e+05 1.966699e+05 2.446755e+05 2.735339e+05 4.239651e+05 8.277603e+05 8.268260e+05 2.522161e+03 3.346705e+03 1.122441e+05 1.567766e+06 4.228322e+03 6.869558e+03 6.288768e+04 4.287552e+04 3.928647e+04 4.904096e+04 7.928616e+04 1.580423e+05 1.779462e+05 5.503141e+02 7.264936e+02 2.162853e+04 2.464076e+05
<GCONST> 5.588409e+02
<STATE> 4
<MEAN> 39
 4.984325e+03 2.728402e+03 5.254943e+03 5.926836e+03 6.462715e+03 5.625409e+03 6.326013e+03 8.540849e+03 8.018831e+03 1.671226e+03 2.945726e+03 1.915781e+04 3.169766e+04 -9.460571e+01 -1.676868e+02 -2.653027e+02 -3.492869e+01 -3.113712e+02 -9.678531e+02 -1.617676e+03 -2.578280e+03 -1.805892e+03 -3.634397e+01 -7.467523e+00 1.542710e+01 -3.213722e+03 -2.920265e+01 -3.749038e+01 -2.156663e+01 3.288581e+01 1.474752e+02 -4.846957e+01 -1.235877e+02 -2.600001e+02 1.437933e+02 2.665065e+01 2.906448e+00 1.430710e+01 -6.217548e+01
<VARIANCE> 39
 3.132931e+07 4.045373e+07 4.580049e+07 1.856676e+08 2.706123e+08 1.313201e+08 4.005085e+08 1.043592e+09 7.971584e+08 8.025408e+05 5.641839e+04 9.982932e+05 2.395808e+09 3.725804e+06 4.122029e+05 5.139458e+05 6.668081e+05 1.232260e+06 2.069613e+07 6.030462e+07 1.499671e+08 8.034858e+07 4.723657e+04 9.222503e+03 8.075098e+04 2.072991e+08 6.929366e+05 4.844662e+04 1.030504e+05 4.631248e+05 3.162500e+06 1.623788e+06 4.667008e+06 6.693585e+06 8.121714e+06 3.985694e+04 1.280925e+03 1.497265e+04 2.028605e+07
<GCONST> 6.622964e+02
<STATE> 5
<MEAN> 39
 2.028875e+04 4.252301e+04 9.199098e+04 1.940849e+05 3.122820e+05 4.885853e+05 6.487922e+05 8.392631e+05 7.820884e+05 5.932670e+04 3.260568e+04 6.025062e+04 1.458296e+06 3.571084e+04 8.418205e+04 1.316606e+05 2.117110e+05 3.041158e+05 4.296218e+05 6.108193e+05 9.321022e+05 9.107578e+05 5.616616e+04 2.458719e+04 3.411650e+04 1.537280e+06 1.612439e+04 4.047654e+04 7.267024e+04 8.175553e+04 1.100707e+05 1.591920e+05 2.514956e+05 4.017087e+05 3.553186e+05 1.970417e+04 6.596383e+03 9.751255e+03 6.225232e+05
<VARIANCE> 39
 2.007800e+09 9.807514e+09 4.616519e+10 2.299742e+11 5.422785e+11 1.838503e+12 3.108273e+12 4.910890e+12 3.249237e+12 1.550790e+10 5.827997e+09 1.202946e+10 1.344335e+13 2.037241e+09 1.155146e+10 2.364309e+10 5.849897e+10 1.170767e+11 2.731299e+11 5.432514e+11 1.253908e+12 1.048076e+12 3.522960e+09 1.002897e+09 2.147476e+09 3.112308e+12 2.247388e+08 8.736776e+08 2.785099e+09 9.846341e+09 1.988141e+10 4.963523e+10 8.368279e+10 1.509128e+11 1.249318e+11 5.983044e+08 2.575551e+08 5.686564e+08 4.282092e+11
<GCONST> 1.024766e+03
<TRANSP> 6
 0.000000e+00 3.333333e-01 6.666667e-01 0.000000e+00 0.000000e+00 0.000000e+00
 0.000000e+00 9.615384e-01 0.000000e+00 3.846154e-02 0.000000e+00 0.000000e+00
 0.000000e+00 0.000000e+00 9.838710e-01 1.612903e-02 0.000000e+00 0.000000e+00
 0.000000e+00 0.000000e+00 0.000000e+00 8.666667e-01 6.666666e-02 6.666666e-02
 0.000000e+00 0.000000e+00 0.000000e+00 0.000000e+00 8.000000e-01 2.000000e-01
 0.000000e+00 0.000000e+00 0.000000e+00 0.000000e+00 0.000000e+00 0.000000e+00
<ENDHMM>
