~o
<STREAMINFO> 1 39
<VECSIZE> 39<NULLD><MELSPEC_D_A_0><DIAGC>
~h "gunshot"
<BEGINHMM>
<NUMSTATES> 6
<STATE> 2
<MEAN> 39
 2.031195e+05 5.433130e+05 1.026121e+06 1.358633e+06 1.801228e+06 2.854864e+06 4.073027e+06 5.867808e+06 5.185616e+06 2.785723e+05 8.039836e+04 1.231068e+05 9.551298e+06 -5.673201e+03 -1.152289e+04 -6.852960e+02 -1.345857e+04 -1.345246e+04 -1.812857e+04 -4.200870e+04 -7.671453e+04 -9.061214e+04 -7.206134e+03 -4.950993e+03 -7.419910e+03 -1.191405e+05 -5.455505e+03 -1.381196e+04 -2.347901e+04 -3.246294e+04 -4.208138e+04 -6.554373e+04 -9.438672e+04 -1.403588e+05 -1.239153e+05 -6.650064e+03 -2.490967e+03 -3.560114e+03 -2.262498e+05
<VARIANCE> 39
 2.161355e+10 9.058823e+10 2.851759e+11 5.513484e+11 6.707448e+11 1.943488e+12 4.311736e+12 1.025530e+13 8.937608e+12 3.336739e+10 9.425407e+09 2.614512e+10 2.361903e+13 1.757758e+09 1.131650e+10 4.797405e+10 7.130442e+10 1.173546e+11 3.139700e+11 6.381820e+11 1.394659e+12 9.303911e+11 3.120190e+09 7.221482e+08 2.059956e+09 3.270023e+12 2.616294e+08 2.324917e+09 7.327413e+09 9.190919e+09 1.412170e+10 3.580824e+10 7.733681e+10 1.695912e+11 9.962277e+10 3.553629e+08 1.245533e+08 3.459228e+08 3.781307e+11
<GCONST> 1.036880e+03
<STATE> 3
<MEAN> 39
 2.399397e+04 1.294753e+05 2.876709e+05 3.104727e+05 4.358419e+05 6.268801e+05 7.693102e+05 9.083113e+05 7.091737e+05 3.484897e+04 6.277752e+03 2.079877e+04 1.740385e+06 -2.620463e+03 -7.951498e+03 -1.831476e+04 -2.073938e+04 -2.532289e+04 -4.116587e+04 -5.801587e+04 -8.147037e+04 -7.063710e+04 -3.162498e+03 -3.452635e+02 -1.334713e+02 -1.346727e+05 3.533514e+02 8.740206e+02 6.534940e+02 1.920983e+03 2.921334e+03 4.538171e+03 4.602308e+03 9.648726e+03 8.817945e+03 2.681488e+02 2.779611e+01 1.285186e+01 1.414137e+04
<VARIANCE> 39
 2.189233e+08 5.805428e+09 2.097580e+10 2.689175e+10 4.517342e+10 9.527375e+10 1.925713e+11 3.436329e+11 2.957336e+11 8.179518e+08 1.211161e+07 3.023326e+06 9.454174e+11 2.105351e+07 2.103428e+08 4.660897e+08 4.551712e+08 9.731541e+08 1.068030e+09 2.025489e+09 4.792950e+09 3.862060e+09 9.444528e+06 5.412458e+05 1.955890e+05 9.029421e+09 1.411515e+06 3.324487e+07 6.803075e+07 4.516086e+07 2.329970e+08 1.890063e+08 1.591056e+08 3.890539e+08 2.357069e+08 1.490226e+06 1.276038e+05 4.561159e+04 4.457515e+08
<GCONST> 8.368405e+02
<STATE> 4
<MEAN> 39
 6.676733e+03 2.842907e+04 6.397139e+04 6.197664e+04 8.413787e+04 1.001810e+05 1.065638e+05 1.021625e+05 6.531150e+04 3.732180e+03 3.061828e+03 1.951852e+04 2.636153e+05 -1.779603e+02 -1.133000e+03 -2.785301e+03 -2.897564e+03 -3.936059e+03 -5.502120e+03 -6.805314e+03 -7.264497e+03 -4.821556e+03 -1.785907e+02 -1.683660e+01 -1.445338e+01 -1.450639e+04 3.290305e+00 -1.671890e+01 1.648683e+02 3.219241e+02 2.575041e+02 2.631723e+02 5.719067e+02 6.955892e+02 5.631174e+02 2.216381e+01 3.126787e+00 8.594303e+00 1.166993e+03
<VARIANCE> 39
 1.265811e+07 2.914192e+08 9.901798e+08 1.053522e+09 2.015213e+09 3.406713e+09 4.580448e+09 5.368395e+09 3.049814e+09 4.764008e+06 6.315279e+04 1.094787e+06 2.244870e+10 5.569402e+05 7.420834e+06 2.873878e+07 1.842886e+07 1.869626e+07 3.021193e+07 5.210250e+07 6.158285e+07 4.145556e+07 1.283312e+05 7.126974e+03 1.016177e+05 1.541657e+08 1.028767e+05 1.673942e+06 5.073191e+06 3.153428e+06 2.914193e+06 3.697440e+06 4.011400e+06 4.260660e+06 3.759606e+06 2.031147e+04 1.397068e+03 2.194378e+04 8.309445e+06
<GCONST> 6.992061e+02
<STATE> 5
<MEAN> 39
 8.831945e+04 2.151525e+05 3.046589e+05 3.888214e+05 3.837490e+05 7.356609e+05 1.197446e+06 1.887920e+06 1.671033e+06 8.468748e+04 3.353250e+04 5.795436e+04 2.877716e+06 6.193366e+04 1.775559e+05 2.576954e+05 3.142889e+05 3.656429e+05 6.237678e+05 9.964966e+05 1.404493e+06 1.207061e+06 6.185573e+04 2.220315e+04 3.029943e+04 2.254875e+06 1.295389e+04 2.986705e+04 7.503248e+04 1.000294e+05 1.198138e+05 2.030856e+05 2.785396e+05 3.938442e+05 3.284639e+05 1.576878e+04 3.366059e+03 4.447692e+03 6.389952e+05
<VARIANCE> 39
 3.137829e+10 1.706949e+11 3.109672e+11 5.186515e+11 4.978693e+11 1.916506e+12 4.948121e+12 1.197817e+13 9.027589e+12 1.962827e+10 3.437160e+09 6.164258e+09 2.764013e+13 3.809533e+09 3.348848e+10 7.778720e+10 1.050354e+11 1.553964e+11 4.148829e+11 9.965850e+11 1.791047e+12 1.262344e+12 3.226593e+09 5.832737e+08 1.346403e+09 4.890446e+12 5.919500e+08 6.714102e+09 7.520143e+09 8.868828e+09 1.250295e+10 3.560224e+10 1.034148e+11 1.820882e+11 1.238149e+11 3.358240e+08 1.136232e+08 2.406644e+08 4.830481e+11
<GCONST> 1.041215e+03
<TRANSP> 6
 0.000000e+00 1.000000e+00 0.000000e+00 0.000000e+00 0.000000e+00 0.000000e+00
 0.000000e+00 9.462366e-01 5.376345e-02 0.000000e+00 0.000000e+00 0.000000e+00
 0.000000e+00 0.000000e+00 9.609375e-01 3.906250e-02 0.000000e+00 0.000000e+00
 0.000000e+00 0.000000e+00 0.000000e+00 9.712644e-01 1.149425e-02 1.724138e-02
 0.000000e+00 0.000000e+00 0.000000e+00 0.000000e+00 8.333333e-01 1.666667e-01
 0.000000e+00 0.000000e+00 0.000000e+00 0.000000e+00 0.000000e+00 0.000000e+00
<ENDHMM>
