~o
<STREAMINFO> 1 39
<VECSIZE> 39<NULLD><MELSPEC_D_A_0><DIAGC>
~h "background"
<BEGINHMM>
<NUMSTATES> 6
<STATE> 2
<MEAN> 39
 6.726335e+03 2.145260e+04 3.460168e+04 4.459460e+04 6.880286e+04 1.131870e+05 1.904538e+05 3.068769e+05 2.726916e+05 1.457382e+04 3.434273e+03 1.962888e+04 4.478583e+05 -2.555239e+01 6.991859e+01 -1.831878e+02 3.712826e+01 2.163169e+02 -3.171468e+01 1.339860e+03 1.909863e+03 3.862587e+02 -4.444978e+01 1.049276e+01 -6.124974e+01 1.479360e+03 -5.095255e+01 -1.187678e+02 -3.325590e+02 6.227951e+01 4.422285e+01 -7.099712e+02 -1.246386e+03 -1.516819e+03 -1.122769e+03 -3.373672e+01 -7.510136e+00 -8.230288e+00 -2.058061e+03
<VARIANCE> 39
 1.074040e+07 1.274296e+08 3.003520e+08 2.645902e+08 4.174948e+08 1.648057e+09 8.894959e+09 4.842235e+10 3.843083e+10 1.088632e+08 6.284362e+05 9.421995e+05 4.856410e+10 1.796261e+06 1.309718e+07 4.143750e+07 4.171828e+07 7.468341e+07 2.860955e+08 8.612998e+08 5.661828e+09 4.868084e+09 1.388234e+07 5.784259e+04 1.139200e+05 6.328502e+09 4.739862e+05 3.100999e+06 1.009644e+07 8.082844e+06 1.550405e+07 7.335226e+07 1.834325e+08 1.294930e+09 1.061199e+09 3.038020e+06 1.156053e+04 2.268336e+04 1.443478e+09
<GCONST> 7.699654e+02
<STATE> 3
<MEAN> 39
 9.619540e+02 1.861384e+03 5.587309e+03 4.989240e+03 5.644164e+03 5.921959e+03 5.734483e+03 5.609445e+03 4.868135e+03 1.533668e+03 2.890507e+03 1.954991e+04 2.659826e+04 -1.485101e+01 -4.680010e+01 -1.590813e+02 -1.246632e+02 -1.843109e+02 -2.125245e+02 -1.920597e+02 -1.620022e+02 -7.535468e+01 -2.463436e+00 6.572410e-01 7.257391e+00 -4.760977e+02 6.235734e+00 1.868430e+00 3.536061e+00 1.011855e+01 1.008723e+01 2.018095e+01 1.477713e+01 1.292219e+01 9.060966e+00 2.907379e-01 2.429759e-01 -7.913733e-01 3.614204e+01
<VARIANCE> 39
 4.932259e+05 4.283176e+06 4.453098e+07 3.292616e+07 5.108518e+07 5.738404e+07 4.580979e+07 2.873380e+07 1.311247e+07 2.929801e+04 2.758451e+04 9.875759e+05 3.112744e+08 2.144052e+04 3.234701e+04 3.391536e+05 1.965990e+05 2.445891e+05 2.734533e+05 4.238380e+05 8.275076e+05 8.266026e+05 2.521868e+03 3.346710e+03 1.122384e+05 1.567328e+06 4.227746e+03 6.867535e+03 6.286436e+04 4.285768e+04 3.927060e+04 4.902657e+04 7.926973e+04 1.580022e+05 1.779052e+05 5.502653e+02 7.264957e+02 2.162756e+04 2.463520e+05
<GCONST> 5.588325e+02
<STATE> 4
<MEAN> 39
 4.984063e+03 2.729311e+03 5.255860e+03 5.928753e+03 6.465187e+03 5.627069e+03 6.328314e+03 8.544711e+03 8.021907e+03 1.671308e+03 2.945737e+03 1.915784e+04 3.170459e+04 -9.466203e+01 -1.677859e+02 -2.653994e+02 -3.484554e+01 -3.115233e+02 -9.685704e+02 -1.618918e+03 -2.580128e+03 -1.807279e+03 -3.637617e+01 -7.473431e+00 1.542303e+01 -3.215991e+03 -2.921180e+01 -3.752303e+01 -2.160375e+01 3.288079e+01 1.475129e+02 -4.854586e+01 -1.237465e+02 -2.602708e+02 1.437621e+02 2.666421e+01 2.906590e+00 1.430644e+01 -6.240829e+01
<VARIANCE> 39
 3.132752e+07 4.048929e+07 4.583750e+07 1.858313e+08 2.708446e+08 1.314091e+08 4.007336e+08 1.044181e+09 7.975979e+08 8.029686e+05 5.641559e+04 9.983058e+05 2.397352e+09 3.725609e+06 4.124793e+05 5.142427e+05 6.673585e+05 1.233006e+06 2.071348e+07 6.035336e+07 1.500650e+08 8.040372e+07 4.727488e+04 9.223437e+03 8.074711e+04 2.074472e+08 6.928824e+05 4.848745e+04 1.031258e+05 4.634399e+05 3.164502e+06 1.625219e+06 4.671198e+06 6.699660e+06 8.127572e+06 3.987953e+04 1.280838e+03 1.497252e+04 2.030288e+07
<GCONST> 6.623180e+02
<STATE> 5
<MEAN> 39
 2.028780e+04 4.252059e+04 9.198361e+04 1.940669e+05 3.122467e+05 4.885228e+05 6.487094e+05 8.391851e+05 7.820259e+05 5.932221e+04 3.260213e+04 6.024514e+04 1.458148e+06 3.571387e+04 8.418820e+04 1.316658e+05 2.117204e+05 3.041135e+05 4.296049e+05 6.108064e+05 9.321059e+05 9.107840e+05 5.616759e+04 2.458880e+04 3.411896e+04 1.537291e+06 1.612512e+04 4.047780e+04 7.267362e+04 8.176277e+04 1.100765e+05 1.592001e+05 2.515091e+05 4.017314e+05 3.553459e+05 1.970569e+04 6.597182e+03 9.752415e+03 6.225614e+05
<VARIANCE> 39
 2.007585e+09 9.806416e+09 4.615940e+10 2.299438e+11 5.422057e+11 1.838245e+12 3.107837e+12 4.910220e+12 3.248829e+12 1.550606e+10 5.827195e+09 1.202779e+10 1.344152e+13 2.037586e+09 1.155317e+10 2.364482e+10 5.850439e+10 1.170746e+11 2.731120e+11 5.432313e+11 1.253885e+12 1.048124e+12 3.523150e+09 1.003014e+09 2.147737e+09 3.112321e+12 2.247435e+08 8.737576e+08 2.785173e+09 9.845910e+09 1.987953e+10 4.963055e+10 8.367790e+10 1.509060e+11 1.249277e+11 5.982601e+08 2.575354e+08 5.686112e+08 4.281858e+11
<GCONST> 1.024764e+03
<TRANSP> 6
 0.000000e+00 3.333943e-01 6.666057e-01 0.000000e+00 0.000000e+00 0.000000e+00
 0.000000e+00 9.615339e-01 0.000000e+00 3.846608e-02 0.000000e+00 0.000000e+00
 0.000000e+00 0.000000e+00 9.838709e-01 1.612912e-02 0.000000e+00 0.000000e+00
 0.000000e+00 0.000000e+00 0.000000e+00 8.665925e-01 6.671412e-02 6.669347e-02
 0.000000e+00 0.000000e+00 0.000000e+00 0.000000e+00 8.000007e-01 1.999993e-01
 0.000000e+00 0.000000e+00 0.000000e+00 0.000000e+00 0.000000e+00 0.000000e+00
<ENDHMM>
