~o
<STREAMINFO> 1 39
<VECSIZE> 39<NULLD><MELSPEC_D_A_0><DIAGC>
~h "gunshot"
<BEGINHMM>
<NUMSTATES> 6
<STATE> 2
<MEAN> 39
 2.030576e+05 5.432752e+05 1.025968e+06 1.358366e+06 1.801091e+06 2.854672e+06 4.072798e+06 5.867252e+06 5.184590e+06 2.784967e+05 8.035995e+04 1.230421e+05 9.550140e+06 -5.670795e+03 -1.151603e+04 -6.851875e+02 -1.345509e+04 -1.344680e+04 -1.813007e+04 -4.200624e+04 -7.669782e+04 -9.059069e+04 -7.204266e+03 -4.949654e+03 -7.417831e+03 -1.191148e+05 -5.453073e+03 -1.380716e+04 -2.347074e+04 -3.245265e+04 -4.207357e+04 -6.553280e+04 -9.436671e+04 -1.403271e+05 -1.238808e+05 -6.647913e+03 -2.489990e+03 -3.558572e+03 -2.261945e+05
<VARIANCE> 39
 2.161001e+10 9.057649e+10 2.851364e+11 5.512760e+11 6.706191e+11 1.943174e+12 4.311080e+12 1.025462e+13 8.937541e+12 3.336117e+10 9.420648e+09 2.612900e+10 2.361635e+13 1.756904e+09 1.131471e+10 4.795726e+10 7.127753e+10 1.173287e+11 3.138962e+11 6.380106e+11 1.394331e+12 9.301815e+11 3.118870e+09 7.216414e+08 2.058249e+09 3.269120e+12 2.615073e+08 2.324453e+09 7.324769e+09 9.188088e+09 1.411990e+10 3.580148e+10 7.731225e+10 1.695438e+11 9.960879e+10 3.552696e+08 1.244995e+08 3.457120e+08 3.780301e+11
<GCONST> 1.036869e+03
<STATE> 3
<MEAN> 39
 2.389412e+04 1.289754e+05 2.864014e+05 3.091013e+05 4.339582e+05 6.238954e+05 7.654839e+05 9.036309e+05 7.053206e+05 3.464450e+04 6.257146e+03 2.078721e+04 1.731932e+06 -2.608882e+03 -7.890007e+03 -1.821877e+04 -2.078085e+04 -2.520937e+04 -4.089746e+04 -5.766551e+04 -8.109216e+04 -7.021391e+04 -3.145051e+03 -3.434277e+02 -1.347076e+02 -1.339871e+05 3.506049e+02 8.485492e+02 6.405807e+02 1.927633e+03 2.897031e+03 4.480198e+03 4.601662e+03 9.552076e+03 8.760188e+03 2.660147e+02 2.778233e+01 1.327245e+01 1.402970e+04
<VARIANCE> 39
 2.185460e+08 5.800193e+09 2.101020e+10 2.692049e+10 4.528462e+10 9.567797e+10 1.929101e+11 3.436023e+11 2.951032e+11 8.163247e+08 1.206968e+07 3.016185e+06 9.468365e+11 2.089750e+07 2.093212e+08 4.634537e+08 4.519597e+08 9.674483e+08 1.068636e+09 2.024383e+09 4.772439e+09 3.852266e+09 9.404343e+06 5.374031e+05 1.942447e+05 9.014180e+09 1.401678e+06 3.310589e+07 6.750698e+07 4.482227e+07 2.312982e+08 1.880345e+08 1.578812e+08 3.872644e+08 2.341880e+08 1.478165e+06 1.265875e+05 4.527460e+04 4.439943e+08
<GCONST> 8.366976e+02
<STATE> 4
<MEAN> 39
 6.653012e+03 2.825469e+04 6.362273e+04 6.156827e+04 8.352602e+04 9.937465e+04 1.055608e+05 1.009047e+05 6.432797e+04 3.698380e+03 3.058427e+03 1.951947e+04 2.613071e+05 -1.717643e+02 -1.138587e+03 -2.763059e+03 -2.759633e+03 -3.896122e+03 -5.491243e+03 -6.762085e+03 -7.103131e+03 -4.738908e+03 -1.735822e+02 -1.626654e+01 -1.283864e+01 -1.429980e+04 3.134915e+00 -2.989262e+00 1.715323e+02 3.070406e+02 2.605674e+02 2.816939e+02 5.484182e+02 7.149661e+02 5.561480e+02 2.223349e+01 2.969503e+00 8.247409e+00 1.173290e+03
<VARIANCE> 39
 1.262903e+07 2.875849e+08 9.742798e+08 1.029774e+09 1.959803e+09 3.310891e+09 4.429376e+09 5.121929e+09 2.898134e+09 4.589622e+06 6.148089e+04 1.101053e+06 2.163441e+10 5.535319e+05 7.461486e+06 2.882284e+07 1.520461e+07 1.852887e+07 3.036241e+07 5.207776e+07 5.741612e+07 4.053933e+07 1.247890e+05 7.111863e+03 1.017545e+05 1.476166e+08 1.034741e+05 1.651201e+06 5.095658e+06 3.133363e+06 2.930680e+06 3.658413e+06 3.938671e+06 4.221315e+06 3.773704e+06 2.042750e+04 1.401010e+03 2.204960e+04 8.352583e+06
<GCONST> 6.984890e+02
<STATE> 5
<MEAN> 39
 8.832511e+04 2.151541e+05 3.046484e+05 3.888148e+05 3.837540e+05 7.356852e+05 1.197463e+06 1.887912e+06 1.670997e+06 8.468497e+04 3.353278e+04 5.795389e+04 2.877712e+06 6.193579e+04 1.775560e+05 2.576934e+05 3.142814e+05 3.656438e+05 6.237742e+05 9.964981e+05 1.404493e+06 1.207057e+06 6.185632e+04 2.220524e+04 3.030317e+04 2.254877e+06 1.295354e+04 2.986663e+04 7.503274e+04 1.000285e+05 1.198136e+05 2.030815e+05 2.785337e+05 3.938418e+05 3.284641e+05 1.576899e+04 3.366692e+03 4.448957e+03 6.389905e+05
<VARIANCE> 39
 3.138218e+10 1.706966e+11 3.109452e+11 5.186327e+11 4.978821e+11 1.916638e+12 4.948248e+12 1.197806e+13 9.027054e+12 1.962684e+10 3.437310e+09 6.164223e+09 2.763994e+13 3.809711e+09 3.348802e+10 7.778688e+10 1.050294e+11 1.553943e+11 4.148825e+11 9.965725e+11 1.791049e+12 1.262339e+12 3.226713e+09 5.833802e+08 1.346683e+09 4.890431e+12 5.920287e+08 6.714116e+09 7.519911e+09 8.868100e+09 1.250281e+10 3.560348e+10 1.034172e+11 1.820904e+11 1.238127e+11 3.358302e+08 1.136365e+08 2.406928e+08 4.830519e+11
<GCONST> 1.041215e+03
<TRANSP> 6
 0.000000e+00 1.000000e+00 0.000000e+00 0.000000e+00 0.000000e+00 0.000000e+00
 0.000000e+00 9.462503e-01 5.374968e-02 0.000000e+00 0.000000e+00 0.000000e+00
 0.000000e+00 0.000000e+00 9.612482e-01 3.875180e-02 0.000000e+00 0.000000e+00
 0.000000e+00 0.000000e+00 0.000000e+00 9.710940e-01 1.155999e-02 1.734600e-02
 0.000000e+00 0.000000e+00 0.000000e+00 0.000000e+00 8.333334e-01 1.666667e-01
 0.000000e+00 0.000000e+00 0.000000e+00 0.000000e+00 0.000000e+00 0.000000e+00
<ENDHMM>
