~o
<STREAMINFO> 1 39
<VECSIZE> 39<NULLD><MELSPEC_D_A_0><DIAGC>
~h "background"
<BEGINHMM>
<NUMSTATES> 6
<STATE> 2
<MEAN> 39
 6.726176e+03 2.144934e+04 3.459875e+04 4.459162e+04 6.879996e+04 1.131932e+05 1.904779e+05 3.069288e+05 2.727383e+05 1.457622e+04 3.434350e+03 1.962882e+04 4.479069e+05 -2.555496e+01 6.966172e+01 -1.832357e+02 3.626871e+01 2.156487e+02 -3.202517e+01 1.339262e+03 1.908591e+03 3.859281e+02 -4.441439e+01 1.049567e+01 -6.123621e+01 1.477609e+03 -5.094588e+01 -1.189500e+02 -3.327138e+02 6.198530e+01 4.388884e+01 -7.097365e+02 -1.245971e+03 -1.516607e+03 -1.122422e+03 -3.372648e+01 -7.510921e+00 -8.219365e+00 -2.057950e+03
<VARIANCE> 39
 1.074120e+07 1.273821e+08 3.003765e+08 2.645686e+08 4.174094e+08 1.648062e+09 8.894225e+09 4.842277e+10 3.843126e+10 1.088675e+08 6.285444e+05 9.420919e+05 4.856427e+10 1.796487e+06 1.309407e+07 4.144548e+07 4.171366e+07 7.467630e+07 2.861391e+08 8.614477e+08 5.663152e+09 4.869253e+09 1.388576e+07 5.785219e+04 1.139123e+05 6.329831e+09 4.740248e+05 3.100461e+06 1.009844e+07 8.083360e+06 1.550416e+07 7.335868e+07 1.834485e+08 1.295214e+09 1.061442e+09 3.038762e+06 1.156227e+04 2.268227e+04 1.443742e+09
<GCONST> 7.699677e+02
<STATE> 3
<MEAN> 39
 9.620134e+02 1.861770e+03 5.588553e+03 4.990353e+03 5.645433e+03 5.923274e+03 5.735703e+03 5.610562e+03 4.869026e+03 1.533701e+03 2.890503e+03 1.954993e+04 2.660179e+04 -1.485161e+01 -4.681155e+01 -1.591205e+02 -1.246948e+02 -1.843562e+02 -2.125772e+02 -1.921059e+02 -1.620385e+02 -7.537019e+01 -2.463418e+00 6.568188e-01 7.250230e+00 -4.762146e+02 6.235815e+00 1.868896e+00 3.537104e+00 1.012059e+01 1.008815e+01 2.017926e+01 1.477259e+01 1.291947e+01 9.057274e+00 2.904434e-01 2.429388e-01 -7.914850e-01 3.613857e+01
<VARIANCE> 39
 4.932258e+05 4.283498e+06 4.453466e+07 3.292857e+07 5.108992e+07 5.738964e+07 4.581375e+07 2.873507e+07 1.311272e+07 2.929867e+04 2.758593e+04 9.875759e+05 3.112920e+08 2.144047e+04 3.235435e+04 3.392263e+05 1.966405e+05 2.446362e+05 2.735075e+05 4.239322e+05 8.277055e+05 8.268148e+05 2.522228e+03 3.346852e+03 1.122420e+05 1.567648e+06 4.227724e+03 6.869276e+03 6.287901e+04 4.286712e+04 3.927922e+04 4.903462e+04 7.928258e+04 1.580382e+05 1.779452e+05 5.503333e+02 7.265318e+02 2.162773e+04 2.463993e+05
<GCONST> 5.588374e+02
<STATE> 4
<MEAN> 39
 4.984284e+03 2.728003e+03 5.254673e+03 5.925953e+03 6.461875e+03 5.625534e+03 6.327246e+03 8.542802e+03 8.020767e+03 1.671290e+03 2.945728e+03 1.915783e+04 3.169884e+04 -9.458524e+01 -1.676933e+02 -2.652912e+02 -3.501236e+01 -3.114064e+02 -9.676658e+02 -1.617444e+03 -2.578562e+03 -1.805978e+03 -3.633295e+01 -7.470562e+00 1.542916e+01 -3.213736e+03 -2.919603e+01 -3.747671e+01 -2.154046e+01 3.296415e+01 1.476742e+02 -4.835471e+01 -1.233856e+02 -2.597859e+02 1.441309e+02 2.667147e+01 2.906584e+00 1.430517e+01 -6.168083e+01
<VARIANCE> 39
 3.132897e+07 4.043460e+07 4.578582e+07 1.855786e+08 2.704993e+08 1.313335e+08 4.007043e+08 1.044091e+09 7.975724e+08 8.029652e+05 5.641836e+04 9.983203e+05 2.396310e+09 3.725694e+06 4.122273e+05 5.138756e+05 6.665722e+05 1.232591e+06 2.068863e+07 6.028802e+07 1.499951e+08 8.035430e+07 4.721758e+04 9.223892e+03 8.074940e+04 2.072966e+08 6.929242e+05 4.842416e+04 1.030079e+05 4.632088e+05 3.163546e+06 1.623113e+06 4.664970e+06 6.690320e+06 8.122252e+06 3.987650e+04 1.280922e+03 1.497300e+04 2.028086e+07
<GCONST> 6.622949e+02
<STATE> 5
<MEAN> 39
 2.029492e+04 4.253615e+04 9.201985e+04 1.941463e+05 3.123815e+05 4.887405e+05 6.489989e+05 8.395268e+05 7.823325e+05 5.934479e+04 3.261529e+04 6.026373e+04 1.458753e+06 3.571358e+04 8.418953e+04 1.316762e+05 2.117421e+05 3.041676e+05 4.296955e+05 6.109237e+05 9.322604e+05 9.108827e+05 5.617169e+04 2.458968e+04 3.411961e+04 1.537517e+06 1.612203e+04 4.047375e+04 7.266644e+04 8.174798e+04 1.100618e+05 1.591836e+05 2.514892e+05 4.017110e+05 3.553111e+05 1.970158e+04 6.594054e+03 9.747413e+03 6.225011e+05
<VARIANCE> 39
 2.008325e+09 9.810132e+09 4.617766e+10 2.300382e+11 5.424273e+11 1.839038e+12 3.109171e+12 4.912291e+12 3.250113e+12 1.551192e+10 5.829642e+09 1.203292e+10 1.344714e+13 2.037346e+09 1.155228e+10 2.364481e+10 5.850468e+10 1.170917e+11 2.731744e+11 5.433380e+11 1.254107e+12 1.048191e+12 3.523084e+09 1.002987e+09 2.147666e+09 3.112707e+12 2.247253e+08 8.736488e+08 2.784876e+09 9.847936e+09 1.988520e+10 4.964681e+10 8.369979e+10 1.509419e+11 1.249593e+11 5.984159e+08 2.575994e+08 5.687341e+08 4.282915e+11
<GCONST> 1.024773e+03
<TRANSP> 6
 0.000000e+00 3.333115e-01 6.666885e-01 0.000000e+00 0.000000e+00 0.000000e+00
 0.000000e+00 9.615523e-01 0.000000e+00 3.844772e-02 0.000000e+00 0.000000e+00
 0.000000e+00 0.000000e+00 9.838746e-01 1.612544e-02 0.000000e+00 0.000000e+00
 0.000000e+00 0.000000e+00 0.000000e+00 8.666546e-01 6.667798e-02 6.666741e-02
 0.000000e+00 0.000000e+00 0.000000e+00 0.000000e+00 8.000147e-01 1.999853e-01
 0.000000e+00 0.000000e+00 0.000000e+00 0.000000e+00 0.000000e+00 0.000000e+00
<ENDHMM>
