~o
<STREAMINFO> 1 39
<VECSIZE> 39<NULLD><MELSPEC_D_A_0><DIAGC>
~h "gunshot"
<BEGINHMM>
<NUMSTATES> 6
<STATE> 2
<MEAN> 39
 2.031836e+05 5.434089e+05 1.026360e+06 1.359036e+06 1.801434e+06 2.855331e+06 4.073736e+06 5.869033e+06 5.187080e+06 2.786355e+05 8.040238e+04 1.231048e+05 9.553315e+06 -5.678133e+03 -1.154053e+04 -6.988647e+02 -1.347942e+04 -1.347405e+04 -1.815398e+04 -4.205671e+04 -7.680827e+04 -9.069330e+04 -7.209461e+03 -4.952164e+03 -7.421428e+03 -1.192764e+05 -5.458030e+03 -1.381954e+04 -2.349162e+04 -3.247917e+04 -4.209402e+04 -6.556945e+04 -9.442876e+04 -1.404192e+05 -1.239681e+05 -6.651887e+03 -2.491081e+03 -3.560084e+03 -2.263455e+05
<VARIANCE> 39
 2.161997e+10 9.063946e+10 2.852580e+11 5.516047e+11 6.709250e+11 1.944291e+12 4.313452e+12 1.025822e+13 8.939685e+12 3.336901e+10 9.423899e+09 2.613993e+10 2.362706e+13 1.758367e+09 1.132024e+10 4.798923e+10 7.133951e+10 1.173823e+11 3.141033e+11 6.384310e+11 1.395046e+12 9.307132e+11 3.120782e+09 7.219653e+08 2.059348e+09 3.271185e+12 2.616882e+08 2.326256e+09 7.329193e+09 9.194377e+09 1.412328e+10 3.581895e+10 7.736112e+10 1.696241e+11 9.964795e+10 3.554001e+08 1.245256e+08 3.458349e+08 3.782356e+11
<GCONST> 1.036889e+03
<STATE> 3
<MEAN> 39
 2.388763e+04 1.288934e+05 2.864183e+05 3.091079e+05 4.339428e+05 6.238868e+05 7.655948e+05 9.038927e+05 7.056838e+05 3.466332e+04 6.257561e+03 2.078745e+04 1.732204e+06 -2.610469e+03 -7.892778e+03 -1.823187e+04 -2.079289e+04 -2.521102e+04 -4.091250e+04 -5.769404e+04 -8.113307e+04 -7.025870e+04 -3.147314e+03 -3.435622e+02 -1.347245e+02 -1.340536e+05 3.510265e+02 8.487890e+02 6.411919e+02 1.929300e+03 2.896279e+03 4.481063e+03 4.603900e+03 9.556293e+03 8.766881e+03 2.661198e+02 2.782280e+01 1.329730e+01 1.403638e+04
<VARIANCE> 39
 2.185527e+08 5.795857e+09 2.102123e+10 2.692714e+10 4.527920e+10 9.568278e+10 1.929388e+11 3.436658e+11 2.952030e+11 8.167981e+08 1.207158e+07 3.016776e+06 9.471073e+11 2.090762e+07 2.090343e+08 4.635486e+08 4.519938e+08 9.669866e+08 1.068320e+09 2.025193e+09 4.772823e+09 3.853563e+09 9.410015e+06 5.376445e+05 1.943197e+05 9.015392e+09 1.401003e+06 3.303445e+07 6.754466e+07 4.481356e+07 2.312685e+08 1.879079e+08 1.578879e+08 3.872192e+08 2.344026e+08 1.479401e+06 1.266493e+05 4.529114e+04 4.437481e+08
<GCONST> 8.366993e+02
<STATE> 4
<MEAN> 39
 6.652645e+03 2.824406e+04 6.361348e+04 6.155795e+04 8.351112e+04 9.936130e+04 1.055545e+05 1.009031e+05 6.432887e+04 3.698006e+03 3.058396e+03 1.951937e+04 2.612800e+05 -1.717834e+02 -1.138271e+03 -2.761479e+03 -2.759016e+03 -3.896010e+03 -5.490478e+03 -6.761945e+03 -7.103704e+03 -4.741118e+03 -1.736917e+02 -1.627514e+01 -1.286833e+01 -1.429957e+04 3.134992e+00 -2.911829e+00 1.713891e+02 3.070433e+02 2.603825e+02 2.816754e+02 5.483116e+02 7.147196e+02 5.564346e+02 2.224958e+01 2.970044e+00 8.250240e+00 1.173162e+03
<VARIANCE> 39
 1.263188e+07 2.873284e+08 9.739580e+08 1.029601e+09 1.960048e+09 3.311166e+09 4.430465e+09 5.123604e+09 2.899065e+09 4.590248e+06 6.147759e+04 1.100964e+06 2.163943e+10 5.534889e+05 7.455958e+06 2.880172e+07 1.519907e+07 1.851932e+07 3.035851e+07 5.207736e+07 5.740348e+07 4.053304e+07 1.247763e+05 7.113192e+03 1.017503e+05 1.475867e+08 1.034511e+05 1.650061e+06 5.094212e+06 3.132455e+06 2.928145e+06 3.658638e+06 3.939327e+06 4.218764e+06 3.773756e+06 2.042107e+04 1.400597e+03 2.205096e+04 8.349499e+06
<GCONST> 6.984825e+02
<STATE> 5
<MEAN> 39
 8.833834e+04 2.151577e+05 3.046239e+05 3.887996e+05 3.837658e+05 7.357420e+05 1.197502e+06 1.887891e+06 1.670912e+06 8.467910e+04 3.353345e+04 5.795280e+04 2.877701e+06 6.194073e+04 1.775561e+05 2.576886e+05 3.142639e+05 3.656461e+05 6.237892e+05 9.965016e+05 1.404495e+06 1.207049e+06 6.185768e+04 2.221013e+04 3.031189e+04 2.254882e+06 1.295270e+04 2.986566e+04 7.503334e+04 1.000264e+05 1.198132e+05 2.030718e+05 2.785199e+05 3.938361e+05 3.284646e+05 1.576949e+04 3.368169e+03 4.451908e+03 6.389793e+05
<VARIANCE> 39
 3.139123e+10 1.707007e+11 3.108936e+11 5.185885e+11 4.979117e+11 1.916946e+12 4.948545e+12 1.197780e+13 9.025800e+12 1.962349e+10 3.437657e+09 6.164138e+09 2.763950e+13 3.810124e+09 3.348694e+10 7.778610e+10 1.050155e+11 1.553893e+11 4.148816e+11 9.965423e+11 1.791054e+12 1.262328e+12 3.226990e+09 5.836286e+08 1.347336e+09 4.890392e+12 5.922122e+08 6.714147e+09 7.519363e+09 8.866396e+09 1.250247e+10 3.560639e+10 1.034229e+11 1.820956e+11 1.238074e+11 3.358444e+08 1.136675e+08 2.407592e+08 4.830604e+11
<GCONST> 1.041217e+03
<TRANSP> 6
 0.000000e+00 1.000000e+00 0.000000e+00 0.000000e+00 0.000000e+00 0.000000e+00
 0.000000e+00 9.462221e-01 5.377787e-02 0.000000e+00 0.000000e+00 0.000000e+00
 0.000000e+00 0.000000e+00 9.612322e-01 3.876777e-02 0.000000e+00 0.000000e+00
 0.000000e+00 0.000000e+00 0.000000e+00 9.711020e-01 1.157336e-02 1.732464e-02
 0.000000e+00 0.000000e+00 0.000000e+00 0.000000e+00 8.333333e-01 1.666667e-01
 0.000000e+00 0.000000e+00 0.000000e+00 0.000000e+00 0.000000e+00 0.000000e+00
<ENDHMM>
