~o
<STREAMINFO> 1 39
<VECSIZE> 39<NULLD><MELSPEC_D_A_0><DIAGC>
~h "background"
<BEGINHMM>
<NUMSTATES> 6
<STATE> 2
<MEAN> 39
 6.726312e+03 2.145211e+04 3.460125e+04 4.459416e+04 6.880243e+04 1.131879e+05 1.904574e+05 3.068847e+05 2.726986e+05 1.457418e+04 3.434285e+03 1.962887e+04 4.478656e+05 -2.555277e+01 6.988028e+01 -1.831949e+02 3.700030e+01 2.162172e+02 -3.176067e+01 1.339771e+03 1.909674e+03 3.862087e+02 -4.444461e+01 1.049320e+01 -6.124772e+01 1.479100e+03 -5.095157e+01 -1.187950e+02 -3.325820e+02 6.223565e+01 4.417309e+01 -7.099363e+02 -1.246324e+03 -1.516788e+03 -1.122717e+03 -3.373520e+01 -7.510254e+00 -8.228657e+00 -2.058044e+03
<VARIANCE> 39
 1.074051e+07 1.274224e+08 3.003555e+08 2.645869e+08 4.174820e+08 1.648058e+09 8.894846e+09 4.842240e+10 3.843088e+10 1.088638e+08 6.284520e+05 9.421831e+05 4.856412e+10 1.796294e+06 1.309672e+07 4.143868e+07 4.171758e+07 7.468232e+07 2.861019e+08 8.613215e+08 5.662023e+09 4.868256e+09 1.388284e+07 5.784400e+04 1.139188e+05 6.328700e+09 4.739917e+05 3.100918e+06 1.009674e+07 8.082918e+06 1.550406e+07 7.335319e+07 1.834348e+08 1.294972e+09 1.061235e+09 3.038130e+06 1.156079e+04 2.268319e+04 1.443517e+09
<GCONST> 7.699658e+02
<STATE> 3
<MEAN> 39
 9.619487e+02 1.862123e+03 5.589721e+03 4.991425e+03 5.646648e+03 5.924560e+03 5.736923e+03 5.611790e+03 4.870131e+03 1.533740e+03 2.890492e+03 1.954993e+04 2.660531e+04 -1.484876e+01 -4.682221e+01 -1.591589e+02 -1.247281e+02 -1.843995e+02 -2.126261e+02 -1.921440e+02 -1.620628e+02 -7.537891e+01 -2.462885e+00 6.562745e-01 7.248035e+00 -4.763147e+02 6.234516e+00 1.869505e+00 3.538889e+00 1.012204e+01 1.008907e+01 2.017835e+01 1.476657e+01 1.291693e+01 9.051455e+00 2.901110e-01 2.430520e-01 -7.902839e-01 3.613413e+01
<VARIANCE> 39
 4.931983e+05 4.283568e+06 4.453616e+07 3.292929e+07 5.109123e+07 5.739106e+07 4.581396e+07 2.873321e+07 1.311214e+07 2.929878e+04 2.758827e+04 9.875926e+05 3.112860e+08 2.143428e+04 3.236154e+04 3.392862e+05 1.966732e+05 2.446704e+05 2.735582e+05 4.240271e+05 8.279121e+05 8.270618e+05 2.522661e+03 3.347086e+03 1.122528e+05 1.567975e+06 4.226462e+03 6.871165e+03 6.289136e+04 4.287356e+04 3.928532e+04 4.904275e+04 7.929404e+04 1.580783e+05 1.779880e+05 5.504016e+02 7.265880e+02 2.163004e+04 2.464487e+05
<GCONST> 5.588411e+02
<STATE> 4
<MEAN> 39
 4.984379e+03 2.727798e+03 5.254214e+03 5.925573e+03 6.461012e+03 5.623968e+03 6.323684e+03 8.537061e+03 8.015663e+03 1.671133e+03 2.945719e+03 1.915779e+04 3.169150e+04 -9.456776e+01 -1.676081e+02 -2.652271e+02 -3.496044e+01 -3.112349e+02 -9.673642e+02 -1.616796e+03 -2.576744e+03 -1.804784e+03 -3.632290e+01 -7.458640e+00 1.542584e+01 -3.211951e+03 -2.919774e+01 -3.747009e+01 -2.154710e+01 3.285933e+01 1.473711e+02 -4.844551e+01 -1.235259e+02 -2.598565e+02 1.436995e+02 2.663278e+01 2.907382e+00 1.430435e+01 -6.216322e+01
<VARIANCE> 39
 3.132996e+07 4.043357e+07 4.577788e+07 1.855752e+08 2.704759e+08 1.312463e+08 4.002583e+08 1.042940e+09 7.966567e+08 8.020442e+05 5.641811e+04 9.982536e+05 2.394420e+09 3.725829e+06 4.119772e+05 5.137382e+05 6.664693e+05 1.231551e+06 2.068553e+07 6.027312e+07 1.498801e+08 8.030344e+07 4.721397e+04 9.221356e+03 8.075128e+04 2.071847e+08 6.929511e+05 4.842342e+04 1.030076e+05 4.628469e+05 3.160539e+06 1.622951e+06 4.664584e+06 6.690168e+06 8.116964e+06 3.983184e+04 1.280977e+03 1.497238e+04 2.027505e+07
<GCONST> 6.622799e+02
<STATE> 5
<MEAN> 39
 2.028662e+04 4.251858e+04 9.198178e+04 1.940660e+05 3.122528e+05 4.885418e+05 6.487341e+05 8.391819e+05 7.820107e+05 5.932090e+04 3.260290e+04 6.024699e+04 1.458159e+06 3.570901e+04 8.417761e+04 1.316534e+05 2.116966e+05 3.040965e+05 4.295978e+05 6.107826e+05 9.320407e+05 9.107031e+05 5.616366e+04 2.458583e+04 3.411468e+04 1.537186e+06 1.612511e+04 4.047729e+04 7.267084e+04 8.175658e+04 1.100726e+05 1.591932e+05 2.514945e+05 4.017021e+05 3.553145e+05 1.970478e+04 6.597072e+03 9.752433e+03 6.225219e+05
<VARIANCE> 39
 2.007654e+09 9.806786e+09 4.616187e+10 2.299575e+11 5.422401e+11 1.838364e+12 3.108039e+12 4.910523e+12 3.249005e+12 1.550682e+10 5.827572e+09 1.202856e+10 1.344237e+13 2.037112e+09 1.155071e+10 2.364198e+10 5.849540e+10 1.170714e+11 2.731174e+11 5.432234e+11 1.253838e+12 1.048020e+12 3.522863e+09 1.002832e+09 2.147337e+09 3.112150e+12 2.247427e+08 8.736682e+08 2.785165e+09 9.845841e+09 1.988044e+10 4.963198e+10 8.367750e+10 1.509034e+11 1.249224e+11 5.982728e+08 2.575431e+08 5.686381e+08 4.281837e+11
<GCONST> 1.024764e+03
<TRANSP> 6
 0.000000e+00 3.331946e-01 6.668054e-01 0.000000e+00 0.000000e+00 0.000000e+00
 0.000000e+00 9.615367e-01 0.000000e+00 3.846334e-02 0.000000e+00 0.000000e+00
 0.000000e+00 0.000000e+00 9.838763e-01 1.612365e-02 0.000000e+00 0.000000e+00
 0.000000e+00 0.000000e+00 0.000000e+00 8.666893e-01 6.663063e-02 6.668016e-02
 0.000000e+00 0.000000e+00 0.000000e+00 0.000000e+00 7.999942e-01 2.000059e-01
 0.000000e+00 0.000000e+00 0.000000e+00 0.000000e+00 0.000000e+00 0.000000e+00
<ENDHMM>
