~o
<STREAMINFO> 1 39
<VECSIZE> 39<NULLD><MELSPEC_D_A_0><DIAGC>
~h "gunshot"
<BEGINHMM>
<NUMSTATES> 6
<STATE> 2
<MEAN> 39
 2.031160e+05 5.432686e+05 1.026056e+06 1.358549e+06 1.801169e+06 2.854653e+06 4.072641e+06 5.867302e+06 5.185308e+06 2.785844e+05 8.042114e+04 1.231514e+05 9.550651e+06 -5.670860e+03 -1.151445e+04 -6.759667e+02 -1.344726e+04 -1.344040e+04 -1.810518e+04 -4.197000e+04 -7.665491e+04 -9.057130e+04 -7.205170e+03 -4.951012e+03 -7.420128e+03 -1.190560e+05 -5.455342e+03 -1.380976e+04 -2.347561e+04 -3.245895e+04 -4.207748e+04 -6.553199e+04 -9.437019e+04 -1.403365e+05 -1.239025e+05 -6.650317e+03 -2.491469e+03 -3.561036e+03 -2.262190e+05
<VARIANCE> 39
 2.161076e+10 9.055787e+10 2.851391e+11 5.512311e+11 6.706959e+11 1.943126e+12 4.310933e+12 1.025381e+13 8.936374e+12 3.337155e+10 9.430107e+09 2.616105e+10 2.361523e+13 1.757957e+09 1.131477e+10 4.797397e+10 7.129800e+10 1.173519e+11 3.139291e+11 6.381379e+11 1.394635e+12 9.303188e+11 3.120747e+09 7.226432e+08 2.061634e+09 3.269856e+12 2.616673e+08 2.324164e+09 7.327941e+09 9.190363e+09 1.412181e+10 3.580540e+10 7.733883e+10 1.696038e+11 9.961623e+10 3.554065e+08 1.246108e+08 3.461384e+08 3.781298e+11
<GCONST> 1.036881e+03
<STATE> 3
<MEAN> 39
 2.389327e+04 1.289353e+05 2.864200e+05 3.091064e+05 4.339534e+05 6.238996e+05 7.655187e+05 9.037631e+05 7.055172e+05 3.465328e+04 6.257481e+03 2.078759e+04 1.732077e+06 -2.610053e+03 -7.891540e+03 -1.822562e+04 -2.078641e+04 -2.521250e+04 -4.090493e+04 -5.767529e+04 -8.111212e+04 -7.023716e+04 -3.145928e+03 -3.434567e+02 -1.346860e+02 -1.340196e+05 3.508890e+02 8.486835e+02 6.408304e+02 1.928758e+03 2.896722e+03 4.479738e+03 4.602831e+03 9.552715e+03 8.763411e+03 2.662714e+02 2.782549e+01 1.328636e+01 1.403230e+04
<VARIANCE> 39
 2.185909e+08 5.797954e+09 2.101695e+10 2.692238e+10 4.528279e+10 9.567907e+10 1.928882e+11 3.436176e+11 2.951750e+11 8.164550e+08 1.207037e+07 3.016083e+06 9.469365e+11 2.090873e+07 2.091795e+08 4.635132e+08 4.518764e+08 9.672635e+08 1.068559e+09 2.024093e+09 4.771760e+09 3.852348e+09 9.405491e+06 5.374008e+05 1.942643e+05 9.013331e+09 1.401500e+06 3.307010e+07 6.752376e+07 4.482030e+07 2.312599e+08 1.879756e+08 1.578628e+08 3.870971e+08 2.342569e+08 1.479976e+06 1.266136e+05 4.528062e+04 4.437580e+08
<GCONST> 8.366970e+02
<STATE> 4
<MEAN> 39
 6.653104e+03 2.824908e+04 6.361859e+04 6.156193e+04 8.351863e+04 9.936945e+04 1.055553e+05 1.009029e+05 6.432809e+04 3.698272e+03 3.058423e+03 1.951977e+04 2.612926e+05 -1.718289e+02 -1.138450e+03 -2.762311e+03 -2.759345e+03 -3.895948e+03 -5.491097e+03 -6.761716e+03 -7.103160e+03 -4.740274e+03 -1.736161e+02 -1.626406e+01 -1.283434e+01 -1.429965e+04 3.149788e+00 -2.966890e+00 1.714586e+02 3.070845e+02 2.605296e+02 2.816725e+02 5.483730e+02 7.147776e+02 5.561454e+02 2.223151e+01 2.968637e+00 8.237454e+00 1.173167e+03
<VARIANCE> 39
 1.263610e+07 2.874668e+08 9.742008e+08 1.029710e+09 1.960018e+09 3.311665e+09 4.430201e+09 5.123546e+09 2.899254e+09 4.591346e+06 6.149185e+04 1.100776e+06 2.163976e+10 5.535305e+05 7.458064e+06 2.881261e+07 1.520294e+07 1.852586e+07 3.036927e+07 5.207021e+07 5.740774e+07 4.054220e+07 1.247739e+05 7.110154e+03 1.017513e+05 1.476128e+08 1.034674e+05 1.650456e+06 5.094864e+06 3.132980e+06 2.929656e+06 3.659830e+06 3.936749e+06 4.221520e+06 3.772239e+06 2.043188e+04 1.400668e+03 2.204743e+04 8.350451e+06
<GCONST> 6.984873e+02
<STATE> 5
<MEAN> 39
 8.830374e+04 2.151482e+05 3.046880e+05 3.888395e+05 3.837350e+05 7.355935e+05 1.197400e+06 1.887944e+06 1.671133e+06 8.469445e+04 3.353170e+04 5.795565e+04 2.877728e+06 6.192779e+04 1.775558e+05 2.577011e+05 3.143098e+05 3.656402e+05 6.237499e+05 9.964924e+05 1.404491e+06 1.207071e+06 6.185412e+04 2.219734e+04 3.028908e+04 2.254870e+06 1.295488e+04 2.986820e+04 7.503177e+04 1.000318e+05 1.198144e+05 2.030971e+05 2.785559e+05 3.938508e+05 3.284634e+05 1.576819e+04 3.364305e+03 4.444188e+03 6.390086e+05
<VARIANCE> 39
 3.136753e+10 1.706900e+11 3.110285e+11 5.187037e+11 4.978341e+11 1.916140e+12 4.947767e+12 1.197847e+13 9.029074e+12 1.963224e+10 3.436748e+09 6.164357e+09 2.764064e+13 3.809042e+09 3.348976e+10 7.778810e+10 1.050520e+11 1.554022e+11 4.148838e+11 9.966207e+11 1.791042e+12 1.262357e+12 3.226264e+09 5.829785e+08 1.345628e+09 4.890491e+12 5.917321e+08 6.714064e+09 7.520790e+09 8.870849e+09 1.250335e+10 3.559878e+10 1.034080e+11 1.820821e+11 1.238211e+11 3.358072e+08 1.135863e+08 2.405856e+08 4.830377e+11
<GCONST> 1.041213e+03
<TRANSP> 6
 0.000000e+00 1.000000e+00 0.000000e+00 0.000000e+00 0.000000e+00 0.000000e+00
 0.000000e+00 9.462372e-01 5.376282e-02 0.000000e+00 0.000000e+00 0.000000e+00
 0.000000e+00 0.000000e+00 9.612390e-01 3.876099e-02 0.000000e+00 0.000000e+00
 0.000000e+00 0.000000e+00 0.000000e+00 9.710994e-01 1.155544e-02 1.734521e-02
 0.000000e+00 0.000000e+00 0.000000e+00 0.000000e+00 8.333333e-01 1.666667e-01
 0.000000e+00 0.000000e+00 0.000000e+00 0.000000e+00 0.000000e+00 0.000000e+00
<ENDHMM>
